{
  "type": "LSTM",
  "options": {
    "inputSize": 31,
    "inputRange": 31,
    "hiddenLayers": [
      20,
      20
    ],
    "outputSize": 31,
    "decayRate": 0.999,
    "smoothEps": 1e-8,
    "regc": 0.000001,
    "clipval": 5,
    "maxPredictionLength": 100,
    "dataFormatter": {
      "values": [
        "buy me a laptop",
        "code",
        "computer",
        "drive",
        "hardware",
        "i broke my pc",
        "i found some bugs in the code",
        "i love computers",
        "i love to play games",
        "i need a new power supply",
        "i swapped the memory",
        "i tested the code",
        "it needs more memory",
        "my unit test failed",
        "power supply",
        "program",
        "programming",
        "software",
        "the drive has a 2TB capacity",
        "tried the program, but it was buggy",
        "unit-tests"
      ],
      "indexTable": {
        "2": 23,
        "b": 0,
        "u": 1,
        "y": 2,
        " ": 3,
        "m": 4,
        "e": 5,
        "a": 6,
        "l": 7,
        "p": 8,
        "t": 9,
        "o": 10,
        "c": 11,
        "d": 12,
        "r": 13,
        "i": 14,
        "v": 15,
        "h": 16,
        "w": 17,
        "k": 18,
        "f": 19,
        "n": 20,
        "s": 21,
        "g": 22,
        "T": 24,
        "B": 25,
        ",": 26,
        "-": 27,
        "stop-input": 28,
        "start-output": 29,
        "unrecognized": 30
      },
      "characterTable": {
        "0": "b",
        "1": "u",
        "2": "y",
        "3": " ",
        "4": "m",
        "5": "e",
        "6": "a",
        "7": "l",
        "8": "p",
        "9": "t",
        "10": "o",
        "11": "c",
        "12": "d",
        "13": "r",
        "14": "i",
        "15": "v",
        "16": "h",
        "17": "w",
        "18": "k",
        "19": "f",
        "20": "n",
        "21": "s",
        "22": "g",
        "23": "2",
        "24": "T",
        "25": "B",
        "26": ",",
        "27": "-",
        "28": null,
        "29": null,
        "30": null
      },
      "characters": [
        "b",
        "u",
        "y",
        " ",
        "m",
        "e",
        "a",
        "l",
        "p",
        "t",
        "o",
        "c",
        "d",
        "r",
        "i",
        "v",
        "h",
        "w",
        "k",
        "f",
        "n",
        "s",
        "g",
        "2",
        "T",
        "B",
        ",",
        "-",
        "stop-input",
        "start-output",
        "unrecognized"
      ],
      "specialIndexes": [
        28,
        29,
        30
      ]
    }
  },
  "input": {
    "rows": 32,
    "columns": 31,
    "weights": {
      "0": -0.4892677962779999,
      "1": 2.3648765087127686,
      "2": -0.003948208410292864,
      "3": -2.070830821990967,
      "4": 1.0817971229553223,
      "5": 0.6898203492164612,
      "6": 0.26001331210136414,
      "7": -1.2483785152435303,
      "8": -0.3015934228897095,
      "9": 0.04748223349452019,
      "10": 0.26457375288009644,
      "11": 1.0612760782241821,
      "12": 0.31363019347190857,
      "13": 2.1268467903137207,
      "14": -3.1279404163360596,
      "15": -0.9931007623672485,
      "16": -0.3085968792438507,
      "17": -0.23519891500473022,
      "18": 0.29787951707839966,
      "19": -1.4899494647979736,
      "20": -0.49679914116859436,
      "21": 0.8609283566474915,
      "22": -1.413286805152893,
      "23": -0.6302685737609863,
      "24": 0.03683086484670639,
      "25": 1.1370584964752197,
      "26": 0.4790826141834259,
      "27": -2.525728940963745,
      "28": 0.465167373418808,
      "29": -3.018472909927368,
      "30": 0.9518230557441711,
      "31": 1.6640102863311768,
      "32": 0.6006560921669006,
      "33": 5.919903755187988,
      "34": -0.9454119801521301,
      "35": 3.0376574993133545,
      "36": -0.4926886558532715,
      "37": 0.659830629825592,
      "38": 3.9499294757843018,
      "39": -4.127230644226074,
      "40": 0.4841480553150177,
      "41": 1.3162552118301392,
      "42": 2.81709361076355,
      "43": -9.585122108459473,
      "44": -3.567579507827759,
      "45": -4.233861446380615,
      "46": 2.0739963054656982,
      "47": -6.881314754486084,
      "48": -5.9599609375,
      "49": -2.859551429748535,
      "50": 2.2570998668670654,
      "51": -0.24258127808570862,
      "52": -8.434582710266113,
      "53": -1.7359118461608887,
      "54": -0.723220705986023,
      "55": 0.8898373246192932,
      "56": 0.2355186939239502,
      "57": 1.754679560661316,
      "58": -1.3332139253616333,
      "59": 2.231125593185425,
      "60": -2.9899747371673584,
      "61": 3.7383360862731934,
      "62": 0.11272365599870682,
      "63": -0.15635710954666138,
      "64": 4.213923454284668,
      "65": -0.5861648321151733,
      "66": 8.112881660461426,
      "67": -1.5537534952163696,
      "68": -2.134214401245117,
      "69": 2.365917444229126,
      "70": -1.402855634689331,
      "71": 1.2168676853179932,
      "72": 0.34247469902038574,
      "73": 0.5896738171577454,
      "74": -6.203606128692627,
      "75": -2.640237808227539,
      "76": -1.1908717155456543,
      "77": 1.5893781185150146,
      "78": -2.3275551795959473,
      "79": -1.4286019802093506,
      "80": -1.323827862739563,
      "81": -1.1783530712127686,
      "82": -3.9572677612304688,
      "83": -2.5328943729400635,
      "84": 2.6085383892059326,
      "85": 0.019721653312444687,
      "86": -2.5682995319366455,
      "87": 0.5196257829666138,
      "88": 5.6737236976623535,
      "89": 2.2528138160705566,
      "90": 1.9890916347503662,
      "91": 0.30165326595306396,
      "92": 1.318937063217163,
      "93": -2.9943928718566895,
      "94": -0.6178805232048035,
      "95": -1.9287937879562378,
      "96": -0.24791046977043152,
      "97": 0.17459112405776978,
      "98": 2.4043099880218506,
      "99": -0.71267169713974,
      "100": -1.1448534727096558,
      "101": 2.4119439125061035,
      "102": -0.004351676441729069,
      "103": -0.7933298349380493,
      "104": 3.6502716541290283,
      "105": 2.2612366676330566,
      "106": 0.8492705821990967,
      "107": 1.5959312915802002,
      "108": -0.7320369482040405,
      "109": 0.03410330042243004,
      "110": -0.35326504707336426,
      "111": 2.3071794509887695,
      "112": 0.24408215284347534,
      "113": 0.30649155378341675,
      "114": -0.49533727765083313,
      "115": 4.207302093505859,
      "116": -2.9454991817474365,
      "117": -2.6961541175842285,
      "118": 2.2144317626953125,
      "119": 0.5443993210792542,
      "120": 1.3960686922073364,
      "121": -2.8723843097686768,
      "122": 1.6752839088439941,
      "123": -1.5252381563186646,
      "124": -0.1952441930770874,
      "125": 0.027089811861515045,
      "126": 0.2883867919445038,
      "127": -2.4096338748931885,
      "128": -4.2602739334106445,
      "129": -1.715743064880371,
      "130": 1.3722840547561646,
      "131": -0.6342282295227051,
      "132": 1.0837912559509277,
      "133": -0.6403341293334961,
      "134": 0.4605523943901062,
      "135": -3.7353029251098633,
      "136": 2.3608598709106445,
      "137": -0.9041603803634644,
      "138": -1.6879246234893799,
      "139": -0.9384685754776001,
      "140": 0.3272397220134735,
      "141": 1.8185322284698486,
      "142": 0.4816513657569885,
      "143": 1.087294101715088,
      "144": -1.8690366744995117,
      "145": 1.317896842956543,
      "146": -0.7289894819259644,
      "147": -0.04754520207643509,
      "148": -0.2723774015903473,
      "149": -1.019913911819458,
      "150": -0.6100496649742126,
      "151": -0.6661618947982788,
      "152": -1.3709778785705566,
      "153": -1.037471055984497,
      "154": 1.7861754894256592,
      "155": -0.940589189529419,
      "156": 0.9833527207374573,
      "157": -0.2753959894180298,
      "158": -1.3354594707489014,
      "159": -0.747326135635376,
      "160": 3.480539560317993,
      "161": -3.7611427307128906,
      "162": -1.1777780055999756,
      "163": 0.0677381232380867,
      "164": -1.0317867994308472,
      "165": -3.856321334838867,
      "166": 4.206276893615723,
      "167": 2.3153433799743652,
      "168": 3.5651025772094727,
      "169": 1.639037847518921,
      "170": -2.8362903594970703,
      "171": 1.9830496311187744,
      "172": -0.4046352505683899,
      "173": 0.9176827073097229,
      "174": -5.92413854598999,
      "175": -0.6607384085655212,
      "176": 1.4473071098327637,
      "177": 0.32317885756492615,
      "178": 0.702916145324707,
      "179": -2.3114397525787354,
      "180": 1.362030267715454,
      "181": -0.6326590180397034,
      "182": -1.7392064332962036,
      "183": 1.4296566247940063,
      "184": 0.8078653812408447,
      "185": -3.455390453338623,
      "186": -1.7156249284744263,
      "187": 0.301357239484787,
      "188": -0.503776490688324,
      "189": 2.1524858474731445,
      "190": -4.044122695922852,
      "191": -0.0816420167684555,
      "192": 1.0776457786560059,
      "193": -3.3197689056396484,
      "194": 1.2166873216629028,
      "195": -1.0691792964935303,
      "196": 0.7245661616325378,
      "197": -0.42728129029273987,
      "198": 2.1747078895568848,
      "199": 0.13098841905593872,
      "200": 0.5666239261627197,
      "201": 0.6789669990539551,
      "202": 1.2508924007415771,
      "203": 3.0202088356018066,
      "204": 1.3124102354049683,
      "205": -1.38700532913208,
      "206": 4.213241100311279,
      "207": -0.33555933833122253,
      "208": -0.4060828387737274,
      "209": -0.08410676568746567,
      "210": -1.0395925045013428,
      "211": 1.6971849203109741,
      "212": 0.9070514440536499,
      "213": 1.3755322694778442,
      "214": 1.5447336435317993,
      "215": 2.3409903049468994,
      "216": 0.5095279216766357,
      "217": 0.3003084063529968,
      "218": -0.3547387421131134,
      "219": 0.27432724833488464,
      "220": 2.974925994873047,
      "221": -0.5007714033126831,
      "222": -0.5155137181282043,
      "223": 0.03327859938144684,
      "224": -0.10045026987791061,
      "225": -2.4719431400299072,
      "226": 1.4084497690200806,
      "227": 0.4143265187740326,
      "228": -1.0619276762008667,
      "229": -1.2742655277252197,
      "230": -0.3796898126602173,
      "231": -0.486698716878891,
      "232": 0.7702363133430481,
      "233": 1.1532806158065796,
      "234": 1.0478771924972534,
      "235": 2.2537553310394287,
      "236": -1.5667918920516968,
      "237": 0.14815887808799744,
      "238": 1.5441105365753174,
      "239": -1.0484702587127686,
      "240": 0.9647290110588074,
      "241": 0.3750031590461731,
      "242": -0.14587032794952393,
      "243": -1.1834253072738647,
      "244": -0.24737690389156342,
      "245": 4.031924247741699,
      "246": 1.7754706144332886,
      "247": 1.8485610485076904,
      "248": -6.173710823059082,
      "249": 0.5903642773628235,
      "250": -2.1234960556030273,
      "251": -2.745363235473633,
      "252": -0.4065498113632202,
      "253": 0.17966803908348083,
      "254": -2.2476446628570557,
      "255": -2.0587289333343506,
      "256": 3.5514254570007324,
      "257": -0.9012698531150818,
      "258": -2.6350324153900146,
      "259": 5.248603820800781,
      "260": 3.0126953125,
      "261": 2.696589946746826,
      "262": 4.419753551483154,
      "263": -0.5060603618621826,
      "264": 1.5810351371765137,
      "265": 2.067261219024658,
      "266": -2.0533010959625244,
      "267": -0.4131680428981781,
      "268": -0.4241228699684143,
      "269": 2.6093451976776123,
      "270": -1.2462493181228638,
      "271": -3.1194324493408203,
      "272": -5.3800530433654785,
      "273": 4.430053234100342,
      "274": -0.1616264283657074,
      "275": -1.6417903900146484,
      "276": -1.4043523073196411,
      "277": 1.9905531406402588,
      "278": -4.106675148010254,
      "279": -0.5916039347648621,
      "280": -0.23797811567783356,
      "281": -0.9225314259529114,
      "282": -3.766932487487793,
      "283": -3.7071151733398438,
      "284": -0.5924229025840759,
      "285": -0.32092541456222534,
      "286": 1.246647834777832,
      "287": 1.9091534614562988,
      "288": -0.3598971962928772,
      "289": -1.0620039701461792,
      "290": 0.6827787160873413,
      "291": 0.8229621052742004,
      "292": 1.5142769813537598,
      "293": -0.004286887589842081,
      "294": -1.246842622756958,
      "295": 0.42417633533477783,
      "296": -3.1239511966705322,
      "297": -2.385122299194336,
      "298": -0.5522840619087219,
      "299": -1.433666467666626,
      "300": -1.1435903310775757,
      "301": 0.5684816837310791,
      "302": 0.7585811018943787,
      "303": -0.5498670935630798,
      "304": -1.679247260093689,
      "305": 0.5241602659225464,
      "306": -1.9334174394607544,
      "307": -4.033915042877197,
      "308": -4.143116474151611,
      "309": 1.348222017288208,
      "310": -2.554081916809082,
      "311": 1.0137672424316406,
      "312": 0.43512070178985596,
      "313": -0.4613911807537079,
      "314": -1.6893582344055176,
      "315": -2.7315590381622314,
      "316": 1.0655701160430908,
      "317": 0.2539798319339752,
      "318": 0.10391895473003387,
      "319": -1.7630524635314941,
      "320": 0.4216763377189636,
      "321": -0.07922801375389099,
      "322": 2.122987747192383,
      "323": -2.724630117416382,
      "324": 2.0200624465942383,
      "325": -2.451594352722168,
      "326": 1.7176110744476318,
      "327": 1.7788853645324707,
      "328": -3.798882007598877,
      "329": -1.3625775575637817,
      "330": 2.286273241043091,
      "331": -0.3068627417087555,
      "332": 0.32256078720092773,
      "333": 1.531844139099121,
      "334": -0.006179181858897209,
      "335": 0.3453355133533478,
      "336": 1.5005685091018677,
      "337": -0.08691027015447617,
      "338": 1.3846648931503296,
      "339": 1.4906387329101562,
      "340": -1.5035359859466553,
      "341": 2.08070707321167,
      "342": -0.9459566473960876,
      "343": -0.22630541026592255,
      "344": 0.7044148445129395,
      "345": 2.1250345706939697,
      "346": 0.08588039129972458,
      "347": 0.17360146343708038,
      "348": 0.06067083403468132,
      "349": -1.1809630393981934,
      "350": -0.002683576662093401,
      "351": 2.1407880783081055,
      "352": -1.5102757215499878,
      "353": -1.9996676445007324,
      "354": -0.276820570230484,
      "355": -1.4012707471847534,
      "356": -0.8270484805107117,
      "357": -0.13012677431106567,
      "358": -0.4791550040245056,
      "359": 0.8285416960716248,
      "360": 1.88258957862854,
      "361": 0.12599000334739685,
      "362": -0.09634914249181747,
      "363": 0.9599332213401794,
      "364": -0.13386787474155426,
      "365": 1.3593045473098755,
      "366": -1.4407193660736084,
      "367": 1.5166445970535278,
      "368": 1.9498355388641357,
      "369": 1.147063136100769,
      "370": -0.18161694705486298,
      "371": 0.3189571797847748,
      "372": -1.5035165548324585,
      "373": -1.003801703453064,
      "374": -0.653412938117981,
      "375": -0.7914289832115173,
      "376": 0.6652311086654663,
      "377": 4.143210411071777,
      "378": -1.8275572061538696,
      "379": 2.139528274536133,
      "380": 1.6065059900283813,
      "381": 2.979997396469116,
      "382": -1.1051584482192993,
      "383": -0.6140050888061523,
      "384": -1.0045238733291626,
      "385": 0.6805244088172913,
      "386": 2.0097644329071045,
      "387": 1.7985330820083618,
      "388": -3.713338851928711,
      "389": -2.9175713062286377,
      "390": 4.488555908203125,
      "391": 0.22640743851661682,
      "392": -0.4952150285243988,
      "393": -3.2056610584259033,
      "394": 4.1505327224731445,
      "395": 1.3021048307418823,
      "396": 0.785079836845398,
      "397": -3.0217177867889404,
      "398": -0.06313026696443558,
      "399": 3.1040611267089844,
      "400": -6.954442977905273,
      "401": 2.0128138065338135,
      "402": 3.6184194087982178,
      "403": 4.677480220794678,
      "404": -0.3846079111099243,
      "405": 2.1029086112976074,
      "406": 0.15455633401870728,
      "407": -0.3501031994819641,
      "408": 0.35365381836891174,
      "409": 0.7262440919876099,
      "410": 1.6464656591415405,
      "411": -3.9106409549713135,
      "412": 0.7132349610328674,
      "413": 0.26850903034210205,
      "414": -1.4227148294448853,
      "415": -1.9203314781188965,
      "416": -1.3554972410202026,
      "417": 0.48540350794792175,
      "418": 0.6004403233528137,
      "419": 0.07571206241846085,
      "420": -2.224503993988037,
      "421": -2.5941736698150635,
      "422": -1.740981101989746,
      "423": -2.256056308746338,
      "424": 0.9783605337142944,
      "425": -0.5073936581611633,
      "426": 2.994030237197876,
      "427": 1.3304107189178467,
      "428": -2.9974164962768555,
      "429": 0.11608679592609406,
      "430": -2.1006815433502197,
      "431": 2.3130486011505127,
      "432": 0.08799238502979279,
      "433": 2.050128698348999,
      "434": 1.073866367340088,
      "435": -0.30946114659309387,
      "436": 2.0954525470733643,
      "437": 0.3645104169845581,
      "438": 0.3893546462059021,
      "439": 1.1029889583587646,
      "440": -1.1365660429000854,
      "441": 0.5492278933525085,
      "442": -0.013496962375938892,
      "443": -0.3008807897567749,
      "444": -1.104299545288086,
      "445": 1.1936447620391846,
      "446": -0.167048841714859,
      "447": -0.5022664666175842,
      "448": 0.04379719868302345,
      "449": -1.4275424480438232,
      "450": -0.45362842082977295,
      "451": -2.688385248184204,
      "452": -0.8416973352432251,
      "453": 0.043946560472249985,
      "454": -1.307530403137207,
      "455": 1.2644293308258057,
      "456": 1.4673577547073364,
      "457": 1.8742449283599854,
      "458": 0.20559100806713104,
      "459": -0.7236220836639404,
      "460": 0.5704352259635925,
      "461": -1.298073410987854,
      "462": 1.235947847366333,
      "463": 0.7055748701095581,
      "464": -0.3806745707988739,
      "465": 2.7945520877838135,
      "466": -1.163856029510498,
      "467": -0.3738573491573334,
      "468": -0.2798333764076233,
      "469": 0.6596229672431946,
      "470": -1.5017907619476318,
      "471": 1.4594898223876953,
      "472": 1.2421817779541016,
      "473": -1.3819607496261597,
      "474": 0.149057999253273,
      "475": 2.6907408237457275,
      "476": -2.168051242828369,
      "477": -1.5040262937545776,
      "478": -1.198599100112915,
      "479": -3.3051400184631348,
      "480": -1.9968675374984741,
      "481": -0.177407369017601,
      "482": -1.7445480823516846,
      "483": -1.1401236057281494,
      "484": -0.252863347530365,
      "485": -0.9992159008979797,
      "486": -1.0513296127319336,
      "487": -0.7122231721878052,
      "488": 1.4836589097976685,
      "489": 4.87361478805542,
      "490": -3.7108538150787354,
      "491": 2.1360504627227783,
      "492": -0.5368930697441101,
      "493": 0.78774493932724,
      "494": -0.6642875671386719,
      "495": 2.8524768352508545,
      "496": 3.317725658416748,
      "497": 3.926037073135376,
      "498": -0.7407092452049255,
      "499": 1.9566720724105835,
      "500": 5.903273105621338,
      "501": -7.974504470825195,
      "502": -1.0457737445831299,
      "503": -2.1822257041931152,
      "504": -7.257689476013184,
      "505": 2.1230735778808594,
      "506": 2.313387155532837,
      "507": 0.7926524877548218,
      "508": -6.9064412117004395,
      "509": -0.3757774829864502,
      "510": -5.494263172149658,
      "511": 0.7347640991210938,
      "512": 2.385650873184204,
      "513": -0.05095430091023445,
      "514": -0.14968472719192505,
      "515": -5.934998989105225,
      "516": -3.0954182147979736,
      "517": 3.0899786949157715,
      "518": -2.6229782104492188,
      "519": 3.374056339263916,
      "520": 1.4658876657485962,
      "521": -0.6573665738105774,
      "522": -0.6662448048591614,
      "523": 1.7632242441177368,
      "524": 5.594993591308594,
      "525": -1.7644243240356445,
      "526": 0.41907480359077454,
      "527": 1.9411665201187134,
      "528": -1.6297775506973267,
      "529": -2.6087214946746826,
      "530": 1.3965378999710083,
      "531": 3.763096332550049,
      "532": 2.3719584941864014,
      "533": -2.890643358230591,
      "534": -0.5037907958030701,
      "535": -0.3714163899421692,
      "536": 2.9974722862243652,
      "537": -3.777146339416504,
      "538": 0.657520055770874,
      "539": 0.4497085213661194,
      "540": 3.114391565322876,
      "541": -0.90664142370224,
      "542": 0.16303367912769318,
      "543": 0.4115050137042999,
      "544": -1.2678614854812622,
      "545": 0.4800328016281128,
      "546": 1.019076943397522,
      "547": -3.267738103866577,
      "548": 0.6022374033927917,
      "549": 1.2746316194534302,
      "550": -1.6672868728637695,
      "551": 0.15321359038352966,
      "552": 0.360700398683548,
      "553": -1.1874439716339111,
      "554": 1.2821550369262695,
      "555": -0.8802991509437561,
      "556": -0.9799989461898804,
      "557": -0.5963268876075745,
      "558": -0.4368923306465149,
      "559": -1.0029544830322266,
      "560": 0.6883121728897095,
      "561": 0.2577786147594452,
      "562": -1.9161462783813477,
      "563": 0.9578195214271545,
      "564": -1.4041504859924316,
      "565": -0.553831160068512,
      "566": -0.38682135939598083,
      "567": 0.9518057703971863,
      "568": -2.551311492919922,
      "569": 0.9518136382102966,
      "570": 1.9663584232330322,
      "571": 0.8092357516288757,
      "572": 1.139069676399231,
      "573": 0.27406224608421326,
      "574": -0.31900399923324585,
      "575": 1.0683552026748657,
      "576": 1.271085500717163,
      "577": -1.030202865600586,
      "578": -0.3950279653072357,
      "579": 2.5299315452575684,
      "580": -0.5548624992370605,
      "581": -0.3080501854419708,
      "582": -0.19224171340465546,
      "583": 0.7609773278236389,
      "584": -1.5807743072509766,
      "585": 0.9209809899330139,
      "586": 0.12351812422275543,
      "587": 1.240902304649353,
      "588": -2.84320330619812,
      "589": 2.638556957244873,
      "590": -4.487644672393799,
      "591": -8.825831413269043,
      "592": 9.033101081848145,
      "593": 1.6577529907226562,
      "594": -0.006921289023011923,
      "595": -10.637279510498047,
      "596": -1.5463207960128784,
      "597": 1.6156560182571411,
      "598": 15.847844123840332,
      "599": -16.35137367248535,
      "600": -3.1987967491149902,
      "601": -9.78714656829834,
      "602": 7.502520561218262,
      "603": -2.242016315460205,
      "604": 12.38070297241211,
      "605": 0.3321450650691986,
      "606": -9.195948600769043,
      "607": 11.437230110168457,
      "608": -2.813851833343506,
      "609": -6.943693161010742,
      "610": -6.280919075012207,
      "611": 1.690437912940979,
      "612": 4.57807731628418,
      "613": -6.336110591888428,
      "614": 0.8599144220352173,
      "615": -3.570399522781372,
      "616": 5.619638442993164,
      "617": 9.760198593139648,
      "618": 3.7052340507507324,
      "619": 3.1696176528930664,
      "620": -1.1680103540420532,
      "621": 0.8022848963737488,
      "622": 2.2343716621398926,
      "623": 0.8702971935272217,
      "624": -2.3472676277160645,
      "625": -1.0554907321929932,
      "626": 0.994384765625,
      "627": 4.36219596862793,
      "628": -2.3568310737609863,
      "629": -0.5319499373435974,
      "630": 3.4442574977874756,
      "631": -3.6308963298797607,
      "632": -2.6184771060943604,
      "633": -3.370485305786133,
      "634": -2.079615592956543,
      "635": -1.4315379858016968,
      "636": -1.7904630899429321,
      "637": 0.4401610493659973,
      "638": 1.0919709205627441,
      "639": 1.4760226011276245,
      "640": 3.3442046642303467,
      "641": -0.7234814167022705,
      "642": -3.1073923110961914,
      "643": 2.3929576873779297,
      "644": 5.477174758911133,
      "645": -2.3126213550567627,
      "646": 0.7737494111061096,
      "647": -0.760026216506958,
      "648": 1.6774647235870361,
      "649": 0.5309515595436096,
      "650": 2.8869383335113525,
      "651": -1.7862508296966553,
      "652": 1.2466211318969727,
      "653": -0.7346513867378235,
      "654": -1.884440302848816,
      "655": 2.9777145385742188,
      "656": -2.4835591316223145,
      "657": -0.04680828005075455,
      "658": 5.449655055999756,
      "659": -0.9546369910240173,
      "660": -1.7749723196029663,
      "661": 4.19534969329834,
      "662": 1.2686225175857544,
      "663": -2.8757286071777344,
      "664": -2.0843911170959473,
      "665": 5.358680725097656,
      "666": 0.3379615247249603,
      "667": -2.1524810791015625,
      "668": 1.3588497638702393,
      "669": -0.8277965784072876,
      "670": 3.595611810684204,
      "671": 5.268004417419434,
      "672": -5.130039215087891,
      "673": -1.2561308145523071,
      "674": -2.691005229949951,
      "675": 3.61985182762146,
      "676": -0.11907081305980682,
      "677": -0.816119372844696,
      "678": 1.8246817588806152,
      "679": 0.6050037145614624,
      "680": 5.112441539764404,
      "681": -0.10605624318122864,
      "682": -0.09255778044462204,
      "683": 1.0073267221450806,
      "684": 3.278776168823242,
      "685": -1.9502582550048828,
      "686": -3.2140941619873047,
      "687": 0.660830020904541,
      "688": 3.307988405227661,
      "689": 0.3251621723175049,
      "690": -1.4948086738586426,
      "691": -0.9632744789123535,
      "692": 3.4874427318573,
      "693": 0.46216124296188354,
      "694": 0.30641403794288635,
      "695": -3.15523624420166,
      "696": -1.9311633110046387,
      "697": -1.4347559213638306,
      "698": -3.5557479858398438,
      "699": -0.5789428949356079,
      "700": -0.5311833620071411,
      "701": 0.34695518016815186,
      "702": 2.359128713607788,
      "703": 2.4839837551116943,
      "704": -1.8676948547363281,
      "705": 1.7783830165863037,
      "706": 4.888408660888672,
      "707": -1.5094428062438965,
      "708": 0.5531780123710632,
      "709": -1.1068655252456665,
      "710": 1.0186434984207153,
      "711": -1.3056492805480957,
      "712": 2.9805538654327393,
      "713": 1.2713392972946167,
      "714": -1.4429912567138672,
      "715": -2.1659624576568604,
      "716": -1.4415290355682373,
      "717": 0.713296115398407,
      "718": 3.3266842365264893,
      "719": -5.898009777069092,
      "720": -3.5269768238067627,
      "721": 3.897853136062622,
      "722": 1.874337077140808,
      "723": -1.2640846967697144,
      "724": 3.3612451553344727,
      "725": 2.072740077972412,
      "726": 4.447465896606445,
      "727": 3.6561765670776367,
      "728": 1.1954900026321411,
      "729": 0.8378872871398926,
      "730": -0.25231292843818665,
      "731": -0.5731601119041443,
      "732": 1.382347583770752,
      "733": -4.2992143630981445,
      "734": -0.5795227885246277,
      "735": 4.945641994476318,
      "736": -2.6585848331451416,
      "737": -4.3005146980285645,
      "738": 1.2722879648208618,
      "739": 1.3916627168655396,
      "740": 1.169222354888916,
      "741": -3.1309306621551514,
      "742": 0.12019908428192139,
      "743": 0.04252977296710014,
      "744": 8.580598831176758,
      "745": -0.8528391122817993,
      "746": 3.1397483348846436,
      "747": -5.612144947052002,
      "748": -6.808511257171631,
      "749": -9.32923698425293,
      "750": -2.1473610401153564,
      "751": -0.16148190200328827,
      "752": 0.5388931035995483,
      "753": -0.4502069056034088,
      "754": -1.8181328773498535,
      "755": -6.299507141113281,
      "756": 9.32718276977539,
      "757": -8.7307710647583,
      "758": -5.452171802520752,
      "759": 0.7333440780639648,
      "760": -9.25449275970459,
      "761": -4.8833327293396,
      "762": -0.4806623160839081,
      "763": 6.432010650634766,
      "764": -2.7565276622772217,
      "765": 1.1243394613265991,
      "766": 7.643470287322998,
      "767": 15.789875030517578,
      "768": 9.875035285949707,
      "769": -10.691962242126465,
      "770": 2.341339588165283,
      "771": -5.6828694343566895,
      "772": -4.297385215759277,
      "773": -7.372321605682373,
      "774": -0.33991265296936035,
      "775": -5.95693826675415,
      "776": 3.0538854598999023,
      "777": 4.894021511077881,
      "778": -4.0956807136535645,
      "779": -18.21274757385254,
      "780": -9.891417503356934,
      "781": -5.038010597229004,
      "782": -2.962468147277832,
      "783": 9.295907020568848,
      "784": -8.328167915344238,
      "785": -1.4666110277175903,
      "786": 1.7733103036880493,
      "787": 15.217572212219238,
      "788": -5.395330905914307,
      "789": -2.2717549800872803,
      "790": -2.5266737937927246,
      "791": -8.232537269592285,
      "792": 2.141356945037842,
      "793": -3.9074127674102783,
      "794": 2.295952320098877,
      "795": -3.114593267440796,
      "796": 3.977367401123047,
      "797": 5.915451526641846,
      "798": 2.330610990524292,
      "799": -3.587181568145752,
      "800": 1.140522837638855,
      "801": 3.564464569091797,
      "802": 3.268834114074707,
      "803": -8.612740516662598,
      "804": -5.925147533416748,
      "805": 2.0195398330688477,
      "806": 17.193824768066406,
      "807": 1.9600269794464111,
      "808": 2.133413791656494,
      "809": -7.601930141448975,
      "810": 7.79149055480957,
      "811": -10.796499252319336,
      "812": 3.5968430042266846,
      "813": 5.41650915145874,
      "814": -3.8619229793548584,
      "815": -0.9652725458145142,
      "816": 8.88900089263916,
      "817": -9.267959594726562,
      "818": -3.3925437927246094,
      "819": -2.2355518341064453,
      "820": -3.346954822540283,
      "821": 0.5770828723907471,
      "822": -2.1257224082946777,
      "823": -13.959733963012695,
      "824": -5.54170560836792,
      "825": 4.594850540161133,
      "826": 2.660041332244873,
      "827": -6.22882604598999,
      "828": 2.383646011352539,
      "829": 6.735605716705322,
      "830": 8.515945434570312,
      "831": -8.242593765258789,
      "832": 2.412071943283081,
      "833": 3.6051177978515625,
      "834": -6.068598747253418,
      "835": -0.17749932408332825,
      "836": 20.136632919311523,
      "837": -8.120192527770996,
      "838": 15.697197914123535,
      "839": -0.27350324392318726,
      "840": 1.6518609523773193,
      "841": -0.8879664540290833,
      "842": -1.466874599456787,
      "843": -1.5714668035507202,
      "844": 0.8805095553398132,
      "845": 2.793599843978882,
      "846": 12.23790168762207,
      "847": -12.185338020324707,
      "848": 8.37314510345459,
      "849": 8.800118446350098,
      "850": 5.655238151550293,
      "851": 0.34644582867622375,
      "852": -5.609161376953125,
      "853": 3.148885488510132,
      "854": 5.563079833984375,
      "855": -4.4304118156433105,
      "856": -18.565176010131836,
      "857": -6.576752662658691,
      "858": 6.737767219543457,
      "859": 0.3143628239631653,
      "860": 1.8547756671905518,
      "861": -5.949599742889404,
      "862": 1.7626299858093262,
      "863": -11.563197135925293,
      "864": -13.056246757507324,
      "865": -1.3312153816223145,
      "866": -1.3614083528518677,
      "867": -8.138883590698242,
      "868": 7.966734886169434,
      "869": -3.843341112136841,
      "870": 0.7172930240631104,
      "871": 2.514986276626587,
      "872": -5.790013790130615,
      "873": -5.010407447814941,
      "874": 12.769927024841309,
      "875": 14.142903327941895,
      "876": -6.741992473602295,
      "877": 1.3200932741165161,
      "878": 18.47970962524414,
      "879": -0.5599222779273987,
      "880": -5.532410621643066,
      "881": -5.69404411315918,
      "882": -5.478397846221924,
      "883": -2.3587512969970703,
      "884": -1.785345196723938,
      "885": -6.728449821472168,
      "886": -2.932387590408325,
      "887": 1.702129602432251,
      "888": 10.792556762695312,
      "889": -2.7571804523468018,
      "890": -2.074692964553833,
      "891": 10.276773452758789,
      "892": 12.953808784484863,
      "893": -11.096575736999512,
      "894": 5.962076663970947,
      "895": 0.9452598690986633,
      "896": 3.123330593109131,
      "897": -0.6770368814468384,
      "898": 7.613030910491943,
      "899": -1.0983312129974365,
      "900": -2.018768787384033,
      "901": -0.0390787310898304,
      "902": -0.6049771904945374,
      "903": 0.26435768604278564,
      "904": 2.6950135231018066,
      "905": -0.36616358160972595,
      "906": -0.6080060005187988,
      "907": 1.89479660987854,
      "908": 0.6021612286567688,
      "909": -0.8961529731750488,
      "910": 1.3981821537017822,
      "911": 2.7433245182037354,
      "912": -0.8303877115249634,
      "913": 0.12284178286790848,
      "914": -0.20360566675662994,
      "915": -0.648676872253418,
      "916": -0.039607685059309006,
      "917": 1.0535863637924194,
      "918": 2.0621211528778076,
      "919": -0.7446165680885315,
      "920": -0.4987330436706543,
      "921": 2.390937566757202,
      "922": -1.3172447681427002,
      "923": -0.48216769099235535,
      "924": -0.22344748675823212,
      "925": -1.142200231552124,
      "926": -0.13536924123764038,
      "927": -2.3498425483703613,
      "928": 3.3685317039489746,
      "929": -1.7756924629211426,
      "930": -0.5795198678970337,
      "931": -2.194884777069092,
      "932": 1.3112750053405762,
      "933": 1.6535451412200928,
      "934": -0.3044421076774597,
      "935": -0.9029630422592163,
      "936": -2.3991029262542725,
      "937": 0.978514552116394,
      "938": 0.8604021668434143,
      "939": 0.5723085999488831,
      "940": -1.0832138061523438,
      "941": -0.1279636174440384,
      "942": 1.4957733154296875,
      "943": -0.0744512528181076,
      "944": -0.17374548316001892,
      "945": 1.7968745231628418,
      "946": -1.1145586967468262,
      "947": -0.4603841304779053,
      "948": 1.1770353317260742,
      "949": 2.6212565898895264,
      "950": -0.9753439426422119,
      "951": -1.2640708684921265,
      "952": 2.7804384231567383,
      "953": 0.04843742027878761,
      "954": -0.2134367674589157,
      "955": -1.3155677318572998,
      "956": -0.1559320092201233,
      "957": 0.12479902058839798,
      "958": 0.21891427040100098,
      "959": 3.9104671478271484,
      "960": -0.009307004511356354,
      "961": -0.076884925365448,
      "962": -0.05962229147553444,
      "963": 0.0654691755771637,
      "964": 0.000042543095332803205,
      "965": -0.050128307193517685,
      "966": -0.021306224167346954,
      "967": -0.06739842146635056,
      "968": -0.020480498671531677,
      "969": 0.04084527865052223,
      "970": -0.05705035477876663,
      "971": -0.0208676066249609,
      "972": -0.02612920105457306,
      "973": -0.056301213800907135,
      "974": -0.05686984583735466,
      "975": -0.05954986438155174,
      "976": -0.07434488832950592,
      "977": -0.026733770966529846,
      "978": 0.0454474575817585,
      "979": -0.06364072114229202,
      "980": 0.020882708951830864,
      "981": -0.012881509028375149,
      "982": 0.04993262514472008,
      "983": 0.0762602910399437,
      "984": 0.0028581535443663597,
      "985": 0.058526523411273956,
      "986": 0.038960106670856476,
      "987": -0.04451701417565346,
      "988": 0.007479640189558268,
      "989": 0.0011238736333325505,
      "990": 0.0018504213076084852,
      "991": -0.06955953687429428
    }
  },
  "hiddenLayers": [
    {
      "inputMatrix": {
        "rows": 20,
        "columns": 31,
        "weights": {
          "0": 1.1565849781036377,
          "1": -0.20682936906814575,
          "2": -0.2818063497543335,
          "3": -0.08739301562309265,
          "4": -0.1923903226852417,
          "5": 0.5316705107688904,
          "6": -1.0509158372879028,
          "7": -1.2520149946212769,
          "8": 1.5815478563308716,
          "9": -0.5154966115951538,
          "10": -1.1731632947921753,
          "11": -0.3601975440979004,
          "12": 1.1400079727172852,
          "13": 0.4436379373073578,
          "14": 0.47721990942955017,
          "15": -0.2121497094631195,
          "16": 0.6003130078315735,
          "17": -1.146980881690979,
          "18": 0.21976031363010406,
          "19": 1.6365622282028198,
          "20": -0.9134148955345154,
          "21": -0.9164416790008545,
          "22": 2.1732523441314697,
          "23": -0.21287505328655243,
          "24": -0.8151517510414124,
          "25": -0.5953869223594666,
          "26": -0.4848489463329315,
          "27": 0.9414945244789124,
          "28": -1.6137615442276,
          "29": -0.04384082555770874,
          "30": -0.1912757158279419,
          "31": -0.9820435643196106,
          "32": -0.05402863770723343,
          "33": 1.572222113609314,
          "34": 1.922500729560852,
          "35": -0.911708414554596,
          "36": -0.03955882042646408,
          "37": -0.1279880553483963,
          "38": -0.9761360883712769,
          "39": 0.521149218082428,
          "40": -1.0135360956192017,
          "41": -0.12539717555046082,
          "42": -1.5004276037216187,
          "43": 2.032482624053955,
          "44": -2.2269747257232666,
          "45": 0.3678353726863861,
          "46": -0.7301294803619385,
          "47": -0.0497259721159935,
          "48": 2.783320665359497,
          "49": 2.504751443862915,
          "50": 2.43654727935791,
          "51": 2.288825750350952,
          "52": 1.0515763759613037,
          "53": 1.1294872760772705,
          "54": 0.14719516038894653,
          "55": 0.05962158739566803,
          "56": 0.8421205878257751,
          "57": 1.0307530164718628,
          "58": 0.8927599787712097,
          "59": 0.6991602182388306,
          "60": 2.722339630126953,
          "61": 0.5783350467681885,
          "62": -0.2095995843410492,
          "63": -0.6447800993919373,
          "64": 0.5865926742553711,
          "65": 1.6426186561584473,
          "66": 1.4961702823638916,
          "67": 0.9387684464454651,
          "68": -2.1240479946136475,
          "69": -1.5234631299972534,
          "70": -1.676627278327942,
          "71": 1.8705201148986816,
          "72": -1.8094704151153564,
          "73": 0.502770721912384,
          "74": -0.6471026539802551,
          "75": -0.842948853969574,
          "76": 0.8463693261146545,
          "77": 1.5996472835540771,
          "78": 0.5093312859535217,
          "79": -0.7232842445373535,
          "80": -0.32191750407218933,
          "81": 0.963310182094574,
          "82": -2.4500887393951416,
          "83": 0.7422713041305542,
          "84": -0.6567433476448059,
          "85": 0.49711287021636963,
          "86": -1.5933665037155151,
          "87": 1.8397510051727295,
          "88": -1.5566374063491821,
          "89": -0.4629853665828705,
          "90": 2.606877326965332,
          "91": 0.2645489275455475,
          "92": -0.7186028957366943,
          "93": 2.5329782962799072,
          "94": -0.5065279006958008,
          "95": -0.20664101839065552,
          "96": 0.7851504683494568,
          "97": 0.8195794820785522,
          "98": 1.3839683532714844,
          "99": -2.2429983615875244,
          "100": -0.29921403527259827,
          "101": -1.633705973625183,
          "102": -0.3553394675254822,
          "103": -1.3718611001968384,
          "104": -0.33570897579193115,
          "105": -1.3694051504135132,
          "106": 0.8753775954246521,
          "107": -0.4443284273147583,
          "108": -1.650065302848816,
          "109": 0.31213968992233276,
          "110": -1.9042820930480957,
          "111": 1.5225801467895508,
          "112": -0.10146679729223251,
          "113": -2.480640172958374,
          "114": 3.4559409618377686,
          "115": 0.11618009209632874,
          "116": 1.0604923963546753,
          "117": 0.17340098321437836,
          "118": -0.8006401062011719,
          "119": 0.8077565431594849,
          "120": 0.34141048789024353,
          "121": 2.871511697769165,
          "122": -0.8501585125923157,
          "123": 0.44399139285087585,
          "124": 0.7829315662384033,
          "125": -1.8333176374435425,
          "126": -0.48418623208999634,
          "127": 2.6948838233947754,
          "128": 0.694038450717926,
          "129": 1.075873613357544,
          "130": 0.1508958637714386,
          "131": -0.23405681550502777,
          "132": -2.2526814937591553,
          "133": 0.7872206568717957,
          "134": 0.5972459316253662,
          "135": 0.04824160039424896,
          "136": -2.044928789138794,
          "137": 0.4946403205394745,
          "138": -1.0381946563720703,
          "139": 2.086573839187622,
          "140": -0.7917147278785706,
          "141": -1.3679821491241455,
          "142": 1.4139338731765747,
          "143": -0.6529556512832642,
          "144": 2.1025230884552,
          "145": -1.3210883140563965,
          "146": -0.18668054044246674,
          "147": 0.7260057330131531,
          "148": 0.1531226933002472,
          "149": -0.3299750089645386,
          "150": 0.13124483823776245,
          "151": 1.5408967733383179,
          "152": 1.9506233930587769,
          "153": 1.7317408323287964,
          "154": 1.597670555114746,
          "155": -0.4963218569755554,
          "156": -0.665737509727478,
          "157": -0.5912355780601501,
          "158": -1.3193161487579346,
          "159": 1.9560526609420776,
          "160": 0.8294110894203186,
          "161": -3.310946226119995,
          "162": -1.0647587776184082,
          "163": -0.6639891862869263,
          "164": -0.3088628053665161,
          "165": -2.9693453311920166,
          "166": 2.3174407482147217,
          "167": -0.2937820553779602,
          "168": 0.8407029509544373,
          "169": 0.3976207673549652,
          "170": -2.038278341293335,
          "171": 0.3111836016178131,
          "172": -1.5732170343399048,
          "173": -0.5316729545593262,
          "174": 0.37663403153419495,
          "175": -1.9551588296890259,
          "176": 1.1819851398468018,
          "177": -0.08796179294586182,
          "178": -2.1699652671813965,
          "179": -0.7553130388259888,
          "180": -0.24724552035331726,
          "181": -0.3920449912548065,
          "182": -1.6794525384902954,
          "183": -0.29093658924102783,
          "184": -0.34372544288635254,
          "185": -1.937381386756897,
          "186": -1.9011456966400146,
          "187": -0.2967131435871124,
          "188": 0.043592195957899094,
          "189": -0.4814198315143585,
          "190": -2.1003482341766357,
          "191": -1.8138535022735596,
          "192": -0.8191643953323364,
          "193": -0.39359429478645325,
          "194": 3.4921114444732666,
          "195": -0.49787378311157227,
          "196": -1.0133527517318726,
          "197": -0.9469602108001709,
          "198": 4.231637001037598,
          "199": 0.002312679775059223,
          "200": 0.7743350267410278,
          "201": 0.4505046308040619,
          "202": 0.7064425349235535,
          "203": 1.5711970329284668,
          "204": -0.0963021069765091,
          "205": -1.3776415586471558,
          "206": -0.3827475905418396,
          "207": -0.2965264618396759,
          "208": 0.8614640831947327,
          "209": -0.036811742931604385,
          "210": -0.950703501701355,
          "211": 1.1988131999969482,
          "212": -0.3971974551677704,
          "213": -0.3101831078529358,
          "214": -2.9413228034973145,
          "215": -1.5284518003463745,
          "216": 0.3725133538246155,
          "217": 0.9220464825630188,
          "218": -0.24747899174690247,
          "219": -0.9960751533508301,
          "220": -1.2779170274734497,
          "221": -0.2644845247268677,
          "222": 0.16230830550193787,
          "223": -0.2950114607810974,
          "224": -1.1163157224655151,
          "225": 2.038245439529419,
          "226": -0.22238118946552277,
          "227": -0.8696509599685669,
          "228": -0.1399008184671402,
          "229": 1.2977967262268066,
          "230": 0.4050952196121216,
          "231": 0.04449467733502388,
          "232": 1.5329214334487915,
          "233": -0.07184646278619766,
          "234": 2.7165348529815674,
          "235": 1.0765717029571533,
          "236": 0.4130394458770752,
          "237": -1.8656402826309204,
          "238": 0.08810580521821976,
          "239": -0.7937940359115601,
          "240": -1.6853864192962646,
          "241": -1.2688226699829102,
          "242": 0.27338752150535583,
          "243": -2.4639058113098145,
          "244": 0.005072599742561579,
          "245": -2.6907267570495605,
          "246": -0.9211699962615967,
          "247": -0.0905461236834526,
          "248": -0.7526370286941528,
          "249": 0.3824562728404999,
          "250": -0.3236795961856842,
          "251": -1.2009557485580444,
          "252": 1.5727894306182861,
          "253": 3.6344118118286133,
          "254": -1.048932671546936,
          "255": -0.701346755027771,
          "256": -1.3138781785964966,
          "257": 1.1891984939575195,
          "258": -2.5059423446655273,
          "259": 2.3676071166992188,
          "260": -0.43760013580322266,
          "261": 0.4883928894996643,
          "262": 2.138315439224243,
          "263": -1.4222034215927124,
          "264": -1.065184473991394,
          "265": 0.23742535710334778,
          "266": 0.3713723421096802,
          "267": 2.0830812454223633,
          "268": -1.0073801279067993,
          "269": 1.820328712463379,
          "270": -0.4220154881477356,
          "271": -2.644458532333374,
          "272": 0.16984976828098297,
          "273": 1.7564457654953003,
          "274": -0.8798213005065918,
          "275": -0.1629415899515152,
          "276": 0.3663288354873657,
          "277": 0.08412554115056992,
          "278": -3.073173761367798,
          "279": 1.5792468786239624,
          "280": -0.17201682925224304,
          "281": 0.6662485599517822,
          "282": 0.36378851532936096,
          "283": 0.42672982811927795,
          "284": 0.6974696516990662,
          "285": -0.9091055393218994,
          "286": 1.8154627084732056,
          "287": -0.25239336490631104,
          "288": -0.7730497717857361,
          "289": 1.163015604019165,
          "290": -0.33832958340644836,
          "291": -0.6224144697189331,
          "292": -0.24036677181720734,
          "293": -0.13248418271541595,
          "294": -0.07552707195281982,
          "295": -4.377799987792969,
          "296": -3.8612425327301025,
          "297": -0.7734029293060303,
          "298": 2.5657923221588135,
          "299": 1.5147041082382202,
          "300": -0.34782853722572327,
          "301": 1.935409426689148,
          "302": 1.281731367111206,
          "303": 1.105658769607544,
          "304": -1.5140103101730347,
          "305": 2.2616918087005615,
          "306": 1.6072112321853638,
          "307": -1.6313451528549194,
          "308": -1.0481336116790771,
          "309": 0.79093998670578,
          "310": 0.07355989515781403,
          "311": 0.02689695917069912,
          "312": 1.2259469032287598,
          "313": -0.0419478714466095,
          "314": -1.4212291240692139,
          "315": -1.0436068773269653,
          "316": 1.6066869497299194,
          "317": -0.7617282271385193,
          "318": -1.0805609226226807,
          "319": 0.3020799458026886,
          "320": -0.517551839351654,
          "321": -0.5281775593757629,
          "322": 0.9198771119117737,
          "323": -0.840583860874176,
          "324": -1.6202343702316284,
          "325": -0.9447053670883179,
          "326": 0.9541248679161072,
          "327": -1.0354435443878174,
          "328": -2.1489906311035156,
          "329": -1.3293827772140503,
          "330": -1.0526880025863647,
          "331": 1.6040797233581543,
          "332": -1.2243129014968872,
          "333": 2.1605427265167236,
          "334": 0.0740785226225853,
          "335": -0.17226330935955048,
          "336": -0.4766157567501068,
          "337": -3.1767125129699707,
          "338": 0.6703566312789917,
          "339": -3.2798750400543213,
          "340": 1.4977977275848389,
          "341": -0.8403302431106567,
          "342": 0.3054955303668976,
          "343": 0.015553201548755169,
          "344": -1.1892138719558716,
          "345": 0.7427883744239807,
          "346": 1.4452069997787476,
          "347": -2.625913143157959,
          "348": 0.6977628469467163,
          "349": 0.7599126696586609,
          "350": 0.6027758121490479,
          "351": -1.995336651802063,
          "352": 3.011355400085449,
          "353": 0.5572618246078491,
          "354": 0.535670816898346,
          "355": 1.421627163887024,
          "356": 0.14841006696224213,
          "357": -0.7554112076759338,
          "358": -0.6664972305297852,
          "359": 0.3911196291446686,
          "360": -0.9300008416175842,
          "361": -1.3891650438308716,
          "362": -0.12673324346542358,
          "363": 1.1023873090744019,
          "364": -2.9724419116973877,
          "365": -2.2465879917144775,
          "366": 1.3498116731643677,
          "367": 0.3144567906856537,
          "368": 0.6784886121749878,
          "369": -1.7589937448501587,
          "370": -0.04931861534714699,
          "371": -2.1965091228485107,
          "372": 1.0761851072311401,
          "373": 0.05231430381536484,
          "374": -1.581495761871338,
          "375": 0.4879092276096344,
          "376": 0.4782029092311859,
          "377": -2.117736577987671,
          "378": 0.273145854473114,
          "379": 1.3831309080123901,
          "380": -1.5230368375778198,
          "381": -0.10317137837409973,
          "382": 0.7101524472236633,
          "383": -1.2610154151916504,
          "384": -1.514229655265808,
          "385": 1.1324189901351929,
          "386": 0.6171602010726929,
          "387": 0.8790977597236633,
          "388": 0.009625956416130066,
          "389": -0.6352670192718506,
          "390": -1.4719502925872803,
          "391": -0.1248987689614296,
          "392": 1.4993879795074463,
          "393": -3.372194766998291,
          "394": 2.2817392349243164,
          "395": 0.5803318619728088,
          "396": 0.2236347645521164,
          "397": -0.6518769860267639,
          "398": 2.205461263656616,
          "399": 1.1751654148101807,
          "400": -0.4003925025463104,
          "401": -0.5081884860992432,
          "402": 0.08744186162948608,
          "403": 2.869152069091797,
          "404": -2.1708779335021973,
          "405": 0.7810397744178772,
          "406": 1.356132984161377,
          "407": 2.3252170085906982,
          "408": -0.41787323355674744,
          "409": -1.5031263828277588,
          "410": 1.347933053970337,
          "411": -0.47125044465065,
          "412": 2.0093929767608643,
          "413": 0.3257285952568054,
          "414": -0.6766687035560608,
          "415": -2.7416694164276123,
          "416": -1.3437384366989136,
          "417": -0.36189955472946167,
          "418": 1.0572235584259033,
          "419": -0.2596868872642517,
          "420": -0.49080783128738403,
          "421": 0.8242565393447876,
          "422": 1.6543469429016113,
          "423": -2.420276165008545,
          "424": -3.243473768234253,
          "425": 1.6319726705551147,
          "426": -0.23681829869747162,
          "427": 1.4186404943466187,
          "428": -2.3666319847106934,
          "429": -0.6204975247383118,
          "430": 0.8315240144729614,
          "431": 0.07553617656230927,
          "432": 2.174142837524414,
          "433": 0.11743190139532089,
          "434": -0.516518771648407,
          "435": -1.173777461051941,
          "436": 1.270276427268982,
          "437": 1.2657973766326904,
          "438": -0.5275977849960327,
          "439": 2.5984268188476562,
          "440": -1.1090987920761108,
          "441": 0.9191567897796631,
          "442": 0.6612241268157959,
          "443": 0.7656083703041077,
          "444": -2.3428897857666016,
          "445": 1.8074357509613037,
          "446": 1.7943297624588013,
          "447": -0.1311069130897522,
          "448": 4.862895965576172,
          "449": 0.5525341033935547,
          "450": 0.7978852391242981,
          "451": 0.7290613055229187,
          "452": -0.5760320425033569,
          "453": -0.34250912070274353,
          "454": 2.3581721782684326,
          "455": -1.6265807151794434,
          "456": 1.110506296157837,
          "457": -0.15317192673683167,
          "458": -0.251629501581192,
          "459": 1.058308720588684,
          "460": -0.5697101950645447,
          "461": -0.5669277310371399,
          "462": 0.07475386559963226,
          "463": 3.6770946979522705,
          "464": -3.41668963432312,
          "465": 0.30806753039360046,
          "466": -0.6860067248344421,
          "467": -0.1733606457710266,
          "468": -0.5172667503356934,
          "469": 2.103126049041748,
          "470": 2.972055196762085,
          "471": -0.349110871553421,
          "472": -1.3215808868408203,
          "473": -0.13746818900108337,
          "474": 0.6624171137809753,
          "475": -2.046879768371582,
          "476": 2.274930715560913,
          "477": 0.8105988502502441,
          "478": 1.3987295627593994,
          "479": -1.434592604637146,
          "480": -0.9302310943603516,
          "481": -0.8091831803321838,
          "482": -2.0488927364349365,
          "483": 0.8425393104553223,
          "484": 1.0194138288497925,
          "485": -3.1530728340148926,
          "486": 2.4668824672698975,
          "487": -0.7828638553619385,
          "488": -1.3757747411727905,
          "489": 0.09768875688314438,
          "490": -0.8899555206298828,
          "491": -0.2538829445838928,
          "492": -0.5768110752105713,
          "493": 0.1451854556798935,
          "494": 0.3861812353134155,
          "495": -1.6758168935775757,
          "496": -1.2015950679779053,
          "497": 0.7924575209617615,
          "498": -2.0378365516662598,
          "499": -0.8095301389694214,
          "500": -0.8347353935241699,
          "501": -0.9542092680931091,
          "502": -0.08563138544559479,
          "503": -1.2385146617889404,
          "504": 0.6455754041671753,
          "505": 0.18881523609161377,
          "506": -0.6813979148864746,
          "507": 0.15173761546611786,
          "508": -0.30106982588768005,
          "509": 2.8863258361816406,
          "510": -2.011033535003662,
          "511": 0.5592517852783203,
          "512": 1.3428055047988892,
          "513": 0.8953844904899597,
          "514": 1.9875556230545044,
          "515": -1.9517794847488403,
          "516": -0.6652679443359375,
          "517": 2.474578857421875,
          "518": -1.878431797027588,
          "519": 0.13651075959205627,
          "520": -1.5009201765060425,
          "521": 1.2914750576019287,
          "522": -1.8342171907424927,
          "523": -0.3871667981147766,
          "524": -0.8404055833816528,
          "525": -0.9000014662742615,
          "526": 1.5302826166152954,
          "527": 1.5296679735183716,
          "528": -0.3633459508419037,
          "529": -0.5384750366210938,
          "530": 2.173963785171509,
          "531": 0.9239116311073303,
          "532": 0.7936497926712036,
          "533": -0.027066204696893692,
          "534": -0.1593174934387207,
          "535": -0.6245657801628113,
          "536": 1.0813883543014526,
          "537": -0.12237203121185303,
          "538": -0.36105242371559143,
          "539": -0.13312610983848572,
          "540": 1.2594525814056396,
          "541": 1.011375904083252,
          "542": 0.5460565090179443,
          "543": 0.5223522186279297,
          "544": -0.44468775391578674,
          "545": 1.7027329206466675,
          "546": -2.201592206954956,
          "547": -1.8780920505523682,
          "548": 0.7909903526306152,
          "549": 2.4904115200042725,
          "550": 0.6359371542930603,
          "551": -0.5655591487884521,
          "552": -0.4854254722595215,
          "553": -0.504599392414093,
          "554": 1.4586784839630127,
          "555": 1.814387321472168,
          "556": 0.9539770483970642,
          "557": -0.22224518656730652,
          "558": -0.427360862493515,
          "559": -0.07815764099359512,
          "560": 0.47960713505744934,
          "561": -0.2130671739578247,
          "562": -0.9802287817001343,
          "563": 0.16087742149829865,
          "564": 0.0864759311079979,
          "565": -0.06803632527589798,
          "566": 1.2524319887161255,
          "567": -1.2583894729614258,
          "568": 1.2873228788375854,
          "569": 0.9304144978523254,
          "570": 1.509867548942566,
          "571": -0.5811271071434021,
          "572": 1.120782732963562,
          "573": -0.5179145932197571,
          "574": 0.7544028759002686,
          "575": 1.4883540868759155,
          "576": -1.6958081722259521,
          "577": 0.27395325899124146,
          "578": 0.8590596914291382,
          "579": -1.0678601264953613,
          "580": 1.3898460865020752,
          "581": -0.23469945788383484,
          "582": -0.7466425895690918,
          "583": 0.5127578973770142,
          "584": 1.4355707168579102,
          "585": 0.3084200620651245,
          "586": 0.11772438883781433,
          "587": 1.2054001092910767,
          "588": -1.2805839776992798,
          "589": -0.6723170876502991,
          "590": 1.7936650514602661,
          "591": 0.7400411367416382,
          "592": -1.312230110168457,
          "593": -0.6822212934494019,
          "594": -0.5181945562362671,
          "595": -0.42264580726623535,
          "596": 0.9410743713378906,
          "597": 2.7481942176818848,
          "598": -1.564313292503357,
          "599": -0.3279997706413269,
          "600": 0.8899120092391968,
          "601": 2.0025863647460938,
          "602": -0.24986158311367035,
          "603": 2.4799416065216064,
          "604": -1.5907443761825562,
          "605": -1.2900726795196533,
          "606": 0.809468150138855,
          "607": -1.4259380102157593,
          "608": 1.0637860298156738,
          "609": 0.3915216326713562,
          "610": 0.422161728143692,
          "611": 0.3122135102748871,
          "612": 1.8582603931427002,
          "613": 0.3439270853996277,
          "614": -0.98521888256073,
          "615": 0.484993577003479,
          "616": -1.330959439277649,
          "617": -2.0370912551879883,
          "618": 0.7740466594696045,
          "619": -1.3308302164077759
        }
      },
      "inputHidden": {
        "rows": 20,
        "columns": 20,
        "weights": {
          "0": 3.781844139099121,
          "1": -0.01604655385017395,
          "2": 4.931318759918213,
          "3": -4.013455390930176,
          "4": 0.528611421585083,
          "5": 2.6679275035858154,
          "6": -2.295254945755005,
          "7": 0.764746367931366,
          "8": -2.470090627670288,
          "9": 0.6902697682380676,
          "10": -1.8715883493423462,
          "11": 1.340963363647461,
          "12": 3.7994587421417236,
          "13": 3.491443395614624,
          "14": 2.3139400482177734,
          "15": 2.2269482612609863,
          "16": 2.4907500743865967,
          "17": -5.710961818695068,
          "18": 1.1098828315734863,
          "19": -8.269698143005371,
          "20": -2.2366509437561035,
          "21": -0.8644050359725952,
          "22": 0.3217417299747467,
          "23": -4.705763816833496,
          "24": -2.6867728233337402,
          "25": -0.08623726665973663,
          "26": 1.2091923952102661,
          "27": -0.6015757918357849,
          "28": 0.7348678112030029,
          "29": 2.283845901489258,
          "30": 0.6281898617744446,
          "31": 1.6198499202728271,
          "32": -1.2599334716796875,
          "33": -2.412163734436035,
          "34": -1.4334781169891357,
          "35": 1.568495750427246,
          "36": -0.7795860767364502,
          "37": -1.8058922290802002,
          "38": 1.455552339553833,
          "39": -0.0898994728922844,
          "40": -0.9896917343139648,
          "41": 0.5637213587760925,
          "42": -0.9994258284568787,
          "43": 0.5568914413452148,
          "44": 1.04840886592865,
          "45": 0.1345965564250946,
          "46": -1.328822374343872,
          "47": 0.7612214684486389,
          "48": -1.2046490907669067,
          "49": -1.2361211776733398,
          "50": 1.5808887481689453,
          "51": 2.601362943649292,
          "52": -2.6806089878082275,
          "53": -1.5380032062530518,
          "54": 0.8461824059486389,
          "55": 1.337121605873108,
          "56": 0.12904293835163116,
          "57": 2.404555320739746,
          "58": 2.3620002269744873,
          "59": -1.6398407220840454,
          "60": 1.8201810121536255,
          "61": -2.4859490394592285,
          "62": 0.3204787075519562,
          "63": 0.3382944166660309,
          "64": -1.9384281635284424,
          "65": -2.5215377807617188,
          "66": -1.7892836332321167,
          "67": -2.91021728515625,
          "68": 2.1412718296051025,
          "69": -2.1800551414489746,
          "70": 1.0047180652618408,
          "71": 0.11945904791355133,
          "72": 0.5063000917434692,
          "73": 0.4299919605255127,
          "74": 2.6157851219177246,
          "75": -0.4725222587585449,
          "76": -2.4456584453582764,
          "77": 0.05652578920125961,
          "78": -5.8597798347473145,
          "79": 2.6160879135131836,
          "80": -5.497419834136963,
          "81": -0.9121286273002625,
          "82": -1.5432416200637817,
          "83": -1.4778493642807007,
          "84": -1.1588329076766968,
          "85": 1.7250267267227173,
          "86": 5.363337516784668,
          "87": 1.4195057153701782,
          "88": 1.272468090057373,
          "89": 1.123126745223999,
          "90": 1.4424995183944702,
          "91": 3.048910140991211,
          "92": -1.038916826248169,
          "93": -3.2334091663360596,
          "94": -1.6010169982910156,
          "95": 4.22963809967041,
          "96": 2.336027145385742,
          "97": -1.8762246370315552,
          "98": 3.688378095626831,
          "99": -0.06522418558597565,
          "100": 0.8595929741859436,
          "101": -1.3920931816101074,
          "102": 3.355465888977051,
          "103": -2.839550256729126,
          "104": -0.21558672189712524,
          "105": -2.4057719707489014,
          "106": 0.8164678812026978,
          "107": 3.2436916828155518,
          "108": -0.32530587911605835,
          "109": 1.6934701204299927,
          "110": 1.3766955137252808,
          "111": -2.742448091506958,
          "112": 2.5697641372680664,
          "113": 0.5362638235092163,
          "114": 0.2196834534406662,
          "115": 0.36790746450424194,
          "116": 0.7281940579414368,
          "117": -2.8382441997528076,
          "118": 5.722573280334473,
          "119": -1.2921347618103027,
          "120": -0.7471428513526917,
          "121": -0.8171601295471191,
          "122": -0.8201565146446228,
          "123": -0.7683160305023193,
          "124": -2.6133437156677246,
          "125": 1.60890793800354,
          "126": 1.2058393955230713,
          "127": 0.4252684414386749,
          "128": 1.229368805885315,
          "129": 0.10586044192314148,
          "130": -0.9652813673019409,
          "131": -1.8047847747802734,
          "132": 0.28636881709098816,
          "133": -1.646671175956726,
          "134": -2.7160727977752686,
          "135": -1.502609133720398,
          "136": 1.1290079355239868,
          "137": -1.639441728591919,
          "138": 0.2720235586166382,
          "139": -0.9425468444824219,
          "140": -2.1219518184661865,
          "141": 2.8975014686584473,
          "142": 2.131293773651123,
          "143": 1.4438090324401855,
          "144": 2.8943705558776855,
          "145": 0.021539410576224327,
          "146": -3.7051796913146973,
          "147": 5.694735050201416,
          "148": 0.8066681623458862,
          "149": -2.4166066646575928,
          "150": 4.72133207321167,
          "151": -0.758754312992096,
          "152": 4.132974624633789,
          "153": 1.7755171060562134,
          "154": -0.07449270784854889,
          "155": -0.63824862241745,
          "156": 3.8567988872528076,
          "157": 2.0088999271392822,
          "158": 2.130885124206543,
          "159": 1.9931389093399048,
          "160": -1.2918179035186768,
          "161": -0.5306687951087952,
          "162": 0.32045307755470276,
          "163": 0.902189314365387,
          "164": 1.3477782011032104,
          "165": -0.5252023339271545,
          "166": -1.5449634790420532,
          "167": 0.23823778331279755,
          "168": 1.6230413913726807,
          "169": -2.323315382003784,
          "170": 0.36899930238723755,
          "171": 0.8191616535186768,
          "172": 2.0362746715545654,
          "173": 1.8783068656921387,
          "174": 2.2946243286132812,
          "175": 1.044996738433838,
          "176": 2.621992826461792,
          "177": -2.5568294525146484,
          "178": -1.6413941383361816,
          "179": 2.3280229568481445,
          "180": 3.1721038818359375,
          "181": -0.45735010504722595,
          "182": -0.2500933110713959,
          "183": -1.331907868385315,
          "184": -1.3392118215560913,
          "185": 0.8749396800994873,
          "186": 1.6088511943817139,
          "187": -2.6336264610290527,
          "188": 1.3746694326400757,
          "189": -1.7460781335830688,
          "190": -1.6004202365875244,
          "191": -0.1333402544260025,
          "192": 2.6171035766601562,
          "193": -0.7134994864463806,
          "194": -2.1207175254821777,
          "195": -1.4217673540115356,
          "196": -0.384479284286499,
          "197": -0.7143297791481018,
          "198": 1.333834171295166,
          "199": 0.9926554560661316,
          "200": 1.9183311462402344,
          "201": -0.961297333240509,
          "202": 0.6119309067726135,
          "203": 1.0049443244934082,
          "204": -0.5869361758232117,
          "205": 0.2122417837381363,
          "206": 2.7469732761383057,
          "207": -0.9858753085136414,
          "208": 4.724266052246094,
          "209": -1.4100877046585083,
          "210": -0.9996046423912048,
          "211": -0.5308926105499268,
          "212": -0.023827487602829933,
          "213": 1.319955587387085,
          "214": 0.9716684818267822,
          "215": -1.9296571016311646,
          "216": -0.26245057582855225,
          "217": -0.6993811130523682,
          "218": -0.3555246591567993,
          "219": 2.418708324432373,
          "220": 4.215548992156982,
          "221": -2.4391791820526123,
          "222": 0.07005510479211807,
          "223": 0.6527035236358643,
          "224": -0.8045012950897217,
          "225": -0.042335327714681625,
          "226": -0.052441634237766266,
          "227": 0.4489811062812805,
          "228": -5.686334133148193,
          "229": 0.5876661539077759,
          "230": -0.31137922406196594,
          "231": -0.9244899749755859,
          "232": 0.21337193250656128,
          "233": 2.4815902709960938,
          "234": 3.6040728092193604,
          "235": -0.5385800004005432,
          "236": -0.0384887270629406,
          "237": 0.7136596441268921,
          "238": 1.5061867237091064,
          "239": -3.7215371131896973,
          "240": 1.7209796905517578,
          "241": -0.8323810696601868,
          "242": 1.224490761756897,
          "243": 1.8701186180114746,
          "244": 0.06717246025800705,
          "245": 2.929088830947876,
          "246": -2.055140733718872,
          "247": -3.401993989944458,
          "248": -5.053579330444336,
          "249": -0.5500323176383972,
          "250": 1.941847562789917,
          "251": -1.1521849632263184,
          "252": 0.16953442990779877,
          "253": 0.2666972875595093,
          "254": 1.6790400743484497,
          "255": -4.034377098083496,
          "256": -1.3863683938980103,
          "257": -0.6656319499015808,
          "258": -0.20582376420497894,
          "259": -0.8267087936401367,
          "260": -3.995622396469116,
          "261": -0.8565176725387573,
          "262": -1.6792230606079102,
          "263": 2.292722225189209,
          "264": -0.21287116408348083,
          "265": -1.224718689918518,
          "266": 1.9629786014556885,
          "267": -1.9008113145828247,
          "268": 2.166517496109009,
          "269": 1.3072758913040161,
          "270": -2.095076084136963,
          "271": -0.4058505892753601,
          "272": -2.6885972023010254,
          "273": 0.24717393517494202,
          "274": 0.4060746133327484,
          "275": -0.73154616355896,
          "276": -1.9934931993484497,
          "277": -1.010913610458374,
          "278": -3.402015209197998,
          "279": 1.2352142333984375,
          "280": -0.468715637922287,
          "281": 0.06870899349451065,
          "282": -0.9507966637611389,
          "283": -0.8839142918586731,
          "284": -0.8826090693473816,
          "285": 0.5162054896354675,
          "286": 0.5456069707870483,
          "287": -0.08840733021497726,
          "288": -0.7284862399101257,
          "289": -0.1744581013917923,
          "290": 1.2899377346038818,
          "291": 0.006545167416334152,
          "292": -0.10943299531936646,
          "293": -1.9191104173660278,
          "294": 1.2470619678497314,
          "295": -0.6609269380569458,
          "296": -0.09984616935253143,
          "297": -1.1870156526565552,
          "298": 0.6583212614059448,
          "299": -0.8063535094261169,
          "300": -2.1202239990234375,
          "301": -1.136906385421753,
          "302": 2.128509283065796,
          "303": -1.7216451168060303,
          "304": -1.0374120473861694,
          "305": 0.4846819043159485,
          "306": 0.5252344608306885,
          "307": 1.2878704071044922,
          "308": -2.492844581604004,
          "309": -0.5078334808349609,
          "310": -0.8470070362091064,
          "311": -0.7522363066673279,
          "312": 1.0364069938659668,
          "313": -0.5828160047531128,
          "314": -0.9388715028762817,
          "315": 2.272176742553711,
          "316": 2.067965030670166,
          "317": -0.3778120279312134,
          "318": 2.7902538776397705,
          "319": -1.0940337181091309,
          "320": -4.391282081604004,
          "321": 0.058522842824459076,
          "322": -1.5650533437728882,
          "323": 2.4766836166381836,
          "324": 0.2727985978126526,
          "325": 0.40783974528312683,
          "326": -1.8740570545196533,
          "327": 0.3147832751274109,
          "328": 2.4485867023468018,
          "329": -2.4288578033447266,
          "330": -0.8084600567817688,
          "331": 3.7363810539245605,
          "332": -2.241943597793579,
          "333": -2.0357234477996826,
          "334": -1.5079195499420166,
          "335": 1.0376754999160767,
          "336": -0.10586781054735184,
          "337": 2.776137590408325,
          "338": -1.5883411169052124,
          "339": -0.3286310136318207,
          "340": 0.3711119294166565,
          "341": -0.5359911918640137,
          "342": -4.249210357666016,
          "343": 2.627265453338623,
          "344": -0.2487284541130066,
          "345": 2.5376133918762207,
          "346": -0.23895972967147827,
          "347": -4.182427883148193,
          "348": -2.4000985622406006,
          "349": 0.28329750895500183,
          "350": -3.051189661026001,
          "351": 0.08386772125959396,
          "352": -2.9871573448181152,
          "353": 2.336500406265259,
          "354": -3.4403598308563232,
          "355": -2.649432420730591,
          "356": -5.455748558044434,
          "357": 1.1174125671386719,
          "358": -2.2753446102142334,
          "359": -0.7613722085952759,
          "360": -5.63373327255249,
          "361": 0.00645293015986681,
          "362": -2.787846088409424,
          "363": -5.028039455413818,
          "364": -0.20861972868442535,
          "365": 1.3237435817718506,
          "366": -0.9060394763946533,
          "367": 1.9650003910064697,
          "368": -5.091799259185791,
          "369": -0.2260511815547943,
          "370": -4.110933780670166,
          "371": 0.44867947697639465,
          "372": 0.3339138627052307,
          "373": -1.6390928030014038,
          "374": -1.8993769884109497,
          "375": 0.8530994653701782,
          "376": 6.065889358520508,
          "377": -2.8995893001556396,
          "378": 6.403818130493164,
          "379": -3.250227928161621,
          "380": 0.532119870185852,
          "381": -3.734516143798828,
          "382": 0.7355362176895142,
          "383": -1.7962827682495117,
          "384": -4.243052959442139,
          "385": 0.5026523470878601,
          "386": 1.0766712427139282,
          "387": -1.3191561698913574,
          "388": -3.6359190940856934,
          "389": 2.0489110946655273,
          "390": 0.014304114505648613,
          "391": -0.7317104935646057,
          "392": -2.4780075550079346,
          "393": 0.5714318752288818,
          "394": -0.6908937692642212,
          "395": -0.6835678815841675,
          "396": -1.3294987678527832,
          "397": -2.460423231124878,
          "398": 1.7201991081237793,
          "399": -3.033632516860962
        }
      },
      "inputBias": {
        "rows": 20,
        "columns": 1,
        "weights": {
          "0": 2.3163998126983643,
          "1": -0.04352697730064392,
          "2": -0.42170414328575134,
          "3": 0.30933013558387756,
          "4": -0.5675402283668518,
          "5": 1.7126516103744507,
          "6": -0.49031105637550354,
          "7": 1.5605113506317139,
          "8": 1.3516826629638672,
          "9": -0.9473944306373596,
          "10": 0.7468759417533875,
          "11": -1.4011186361312866,
          "12": -0.08089213073253632,
          "13": 0.023702356964349747,
          "14": -0.07680728286504745,
          "15": 0.2178557813167572,
          "16": 0.5948408246040344,
          "17": -0.4908156394958496,
          "18": -0.46269872784614563,
          "19": -0.8043627142906189
        }
      },
      "forgetMatrix": {
        "rows": 20,
        "columns": 31,
        "weights": {
          "0": 0.8474507331848145,
          "1": -1.0127110481262207,
          "2": -1.3948495388031006,
          "3": -1.1464707851409912,
          "4": 1.9545947313308716,
          "5": 0.945966362953186,
          "6": -0.8858465552330017,
          "7": 0.3782021105289459,
          "8": -1.45075261592865,
          "9": -0.43914923071861267,
          "10": 0.9581449627876282,
          "11": 1.5036039352416992,
          "12": -1.5778446197509766,
          "13": 2.1362502574920654,
          "14": 0.8007758259773254,
          "15": 0.09234661608934402,
          "16": 0.3645377457141876,
          "17": 0.27821585536003113,
          "18": -0.10016874969005585,
          "19": -0.5851552486419678,
          "20": 1.2193098068237305,
          "21": -0.1158996969461441,
          "22": -0.2983723282814026,
          "23": -4.322904586791992,
          "24": -0.5230390429496765,
          "25": 1.8556700944900513,
          "26": 1.4521915912628174,
          "27": 2.7432851791381836,
          "28": 1.0407403707504272,
          "29": -0.8439735174179077,
          "30": -2.2378756999969482,
          "31": 1.6724365949630737,
          "32": 0.5198203921318054,
          "33": 2.4630401134490967,
          "34": -0.259149968624115,
          "35": 1.0000272989273071,
          "36": -3.4905941486358643,
          "37": 0.3193262815475464,
          "38": 0.1707131564617157,
          "39": -0.14824673533439636,
          "40": -0.3895706832408905,
          "41": 0.7858185768127441,
          "42": -1.0573675632476807,
          "43": -1.8420138359069824,
          "44": -3.1238646507263184,
          "45": -0.6956912279129028,
          "46": -1.1321682929992676,
          "47": -0.1056424155831337,
          "48": 0.8952146172523499,
          "49": -1.4971431493759155,
          "50": 0.3565578758716583,
          "51": -0.9043232202529907,
          "52": 0.37318557500839233,
          "53": 0.2996055781841278,
          "54": 2.481241464614868,
          "55": 2.2933871746063232,
          "56": -3.482089042663574,
          "57": 0.10334960371255875,
          "58": -2.641988754272461,
          "59": -0.491890013217926,
          "60": -0.9710792303085327,
          "61": 1.3246632814407349,
          "62": 0.1925373524427414,
          "63": -1.8759557008743286,
          "64": -0.9341683983802795,
          "65": 2.632540702819824,
          "66": 0.4463590681552887,
          "67": 0.904878556728363,
          "68": 0.15396834909915924,
          "69": 0.5933514833450317,
          "70": 0.19030754268169403,
          "71": 0.87943434715271,
          "72": 0.16841508448123932,
          "73": -0.47601038217544556,
          "74": 0.28629231452941895,
          "75": -0.08860113471746445,
          "76": 1.5104210376739502,
          "77": -0.1452440768480301,
          "78": 1.1705255508422852,
          "79": -0.6899307370185852,
          "80": -0.4193839728832245,
          "81": 1.3554470539093018,
          "82": -0.49361541867256165,
          "83": -2.074388027191162,
          "84": 3.4257285594940186,
          "85": 0.6277179718017578,
          "86": 0.9207975268363953,
          "87": -0.7825365662574768,
          "88": 1.8333301544189453,
          "89": 0.593738317489624,
          "90": 0.8142371773719788,
          "91": 2.5494279861450195,
          "92": -0.817354679107666,
          "93": -2.3739125728607178,
          "94": 1.6930795907974243,
          "95": -2.008415460586548,
          "96": -0.4501786231994629,
          "97": 0.08050337433815002,
          "98": -0.9435380697250366,
          "99": -1.119406819343567,
          "100": -0.9501652717590332,
          "101": 0.6864776015281677,
          "102": -1.462851643562317,
          "103": -0.828163743019104,
          "104": 0.4357176721096039,
          "105": 1.0880115032196045,
          "106": 2.4070885181427,
          "107": 1.0045000314712524,
          "108": -1.0070792436599731,
          "109": 1.2062042951583862,
          "110": 0.24180306494235992,
          "111": 0.6266472339630127,
          "112": -1.5953552722930908,
          "113": -1.078510046005249,
          "114": 0.712283730506897,
          "115": -1.5204256772994995,
          "116": -0.5105708837509155,
          "117": -2.126152753829956,
          "118": 2.6150784492492676,
          "119": -0.20095139741897583,
          "120": 0.6294127106666565,
          "121": 0.025447826832532883,
          "122": 0.4189034700393677,
          "123": -0.572742223739624,
          "124": -0.12027168273925781,
          "125": 1.8046002388000488,
          "126": 0.9919765591621399,
          "127": -1.843972086906433,
          "128": 0.855854868888855,
          "129": -1.5655651092529297,
          "130": 0.19505053758621216,
          "131": 1.5029077529907227,
          "132": -0.8830865025520325,
          "133": -1.8722118139266968,
          "134": -0.3957338333129883,
          "135": -0.6849024891853333,
          "136": -0.5094277262687683,
          "137": -1.2536799907684326,
          "138": -0.9916588664054871,
          "139": -3.261523962020874,
          "140": -0.7532854676246643,
          "141": -0.5139869451522827,
          "142": -1.6051816940307617,
          "143": 1.226597785949707,
          "144": -0.983026385307312,
          "145": 2.473510980606079,
          "146": -0.056514643132686615,
          "147": 2.1796534061431885,
          "148": 1.5657879114151,
          "149": -1.2461497783660889,
          "150": 1.421536922454834,
          "151": -3.4350264072418213,
          "152": 0.5282605290412903,
          "153": -1.3311922550201416,
          "154": -1.4365023374557495,
          "155": 1.1668286323547363,
          "156": -2.7886970043182373,
          "157": -0.0993562638759613,
          "158": 1.5652533769607544,
          "159": 1.2158684730529785,
          "160": 2.274000644683838,
          "161": 0.3650245666503906,
          "162": -1.0048654079437256,
          "163": 0.5939816832542419,
          "164": 1.2076361179351807,
          "165": -0.03653678670525551,
          "166": -0.224164217710495,
          "167": 0.057633962482213974,
          "168": 0.4930250346660614,
          "169": 0.9083505272865295,
          "170": 1.8707380294799805,
          "171": 0.11950896680355072,
          "172": -0.8139513731002808,
          "173": 1.3973517417907715,
          "174": 1.1574500799179077,
          "175": -0.7653475999832153,
          "176": -3.188948631286621,
          "177": 0.612621545791626,
          "178": -0.12494906783103943,
          "179": 0.5328639149665833,
          "180": -0.3614629805088043,
          "181": 0.685477614402771,
          "182": 2.259119987487793,
          "183": 1.0387948751449585,
          "184": 1.94547438621521,
          "185": 1.0203312635421753,
          "186": -1.3761605024337769,
          "187": 0.2760471999645233,
          "188": -0.05663590133190155,
          "189": 1.2014901638031006,
          "190": -0.161410391330719,
          "191": -1.4339089393615723,
          "192": -0.10661493241786957,
          "193": -2.0620551109313965,
          "194": 1.151572585105896,
          "195": -0.024274468421936035,
          "196": 1.485534429550171,
          "197": -1.071590542793274,
          "198": 1.5206414461135864,
          "199": -1.6279847621917725,
          "200": -0.027784649282693863,
          "201": 0.01959158107638359,
          "202": 1.0769927501678467,
          "203": 2.448848247528076,
          "204": 1.1849814653396606,
          "205": 1.079232931137085,
          "206": 0.4420732259750366,
          "207": 0.8548208475112915,
          "208": 0.9968490600585938,
          "209": -1.1168774366378784,
          "210": -1.520988941192627,
          "211": 1.7721128463745117,
          "212": 1.0883595943450928,
          "213": 4.126401424407959,
          "214": 1.900181531906128,
          "215": 1.9108656644821167,
          "216": -0.1637929081916809,
          "217": 1.4259822368621826,
          "218": -1.9786272048950195,
          "219": 0.7231460213661194,
          "220": 0.7252613306045532,
          "221": 0.5762341618537903,
          "222": -1.1679658889770508,
          "223": 0.550660252571106,
          "224": 1.2325295209884644,
          "225": -0.7330576181411743,
          "226": 1.407884120941162,
          "227": 0.9466621279716492,
          "228": -0.7885807156562805,
          "229": -1.2803263664245605,
          "230": -0.56782066822052,
          "231": -1.9299442768096924,
          "232": 0.9291792511940002,
          "233": -0.17696788907051086,
          "234": -0.6828219890594482,
          "235": 0.3893888592720032,
          "236": 0.640434741973877,
          "237": -0.8501937985420227,
          "238": 0.19555020332336426,
          "239": -0.12276443839073181,
          "240": 1.445590853691101,
          "241": 1.5185199975967407,
          "242": -1.1705999374389648,
          "243": 0.6332486271858215,
          "244": 0.9062050580978394,
          "245": -0.4079928696155548,
          "246": -0.2908615171909332,
          "247": 2.552532434463501,
          "248": 0.9434276819229126,
          "249": 0.1707109808921814,
          "250": 0.90500408411026,
          "251": 0.06351971626281738,
          "252": 1.956413745880127,
          "253": 2.5572166442871094,
          "254": -1.1432349681854248,
          "255": -0.6060121655464172,
          "256": -0.1717575490474701,
          "257": -0.11626514047384262,
          "258": -2.37676739692688,
          "259": 1.7532764673233032,
          "260": -0.10400830209255219,
          "261": -0.03748892620205879,
          "262": 1.5172871351242065,
          "263": -0.030323022976517677,
          "264": -0.8920528888702393,
          "265": -0.43318888545036316,
          "266": -0.6804488897323608,
          "267": 0.9685070514678955,
          "268": -1.0329535007476807,
          "269": 2.5345067977905273,
          "270": -0.6539158225059509,
          "271": -2.4969723224639893,
          "272": -0.2268608659505844,
          "273": 1.8422447443008423,
          "274": -1.2042795419692993,
          "275": -0.6115620732307434,
          "276": -0.6422479748725891,
          "277": -0.8455454111099243,
          "278": -2.4285669326782227,
          "279": 0.8644328713417053,
          "280": -0.5515743494033813,
          "281": -0.5229862928390503,
          "282": -0.4961331784725189,
          "283": 0.7989820837974548,
          "284": -1.461500644683838,
          "285": 2.1017274856567383,
          "286": 0.9215795397758484,
          "287": -2.7184479236602783,
          "288": -0.40848374366760254,
          "289": 1.9629666805267334,
          "290": -0.9201001524925232,
          "291": -2.439152479171753,
          "292": 0.5057001113891602,
          "293": -1.734145998954773,
          "294": 1.1506279706954956,
          "295": 0.920225203037262,
          "296": 0.7241432070732117,
          "297": -1.1153521537780762,
          "298": 0.18468131124973297,
          "299": -1.2174702882766724,
          "300": 0.2970121204853058,
          "301": -2.9466586112976074,
          "302": -0.8813942074775696,
          "303": 0.6306250691413879,
          "304": -0.4401450753211975,
          "305": -0.758902907371521,
          "306": -0.06671925634145737,
          "307": -1.3525680303573608,
          "308": -1.729603886604309,
          "309": 2.811444044113159,
          "310": 0.5147839784622192,
          "311": 0.1934005469083786,
          "312": 0.428048312664032,
          "313": -0.6688228845596313,
          "314": -2.1465959548950195,
          "315": 0.7401349544525146,
          "316": 2.8332810401916504,
          "317": 0.4348553717136383,
          "318": 0.8158480525016785,
          "319": -1.2280441522598267,
          "320": 1.7058135271072388,
          "321": -0.43047162890434265,
          "322": 0.9576369524002075,
          "323": -0.18422763049602509,
          "324": -1.286658763885498,
          "325": -2.8294975757598877,
          "326": 0.359560489654541,
          "327": -0.7297650575637817,
          "328": -1.6722283363342285,
          "329": -0.2674582898616791,
          "330": 0.9729933142662048,
          "331": 0.46936094760894775,
          "332": 1.356121301651001,
          "333": 1.8465601205825806,
          "334": 1.4063924551010132,
          "335": -1.900471568107605,
          "336": 2.209397315979004,
          "337": -0.41578567028045654,
          "338": -0.159389466047287,
          "339": -1.8889425992965698,
          "340": 0.28347131609916687,
          "341": -0.7236693501472473,
          "342": -1.510725498199463,
          "343": 0.388405978679657,
          "344": -1.4719723463058472,
          "345": 0.6014328002929688,
          "346": 2.1379330158233643,
          "347": -1.7989999055862427,
          "348": 0.7470231056213379,
          "349": -0.13748134672641754,
          "350": 0.6740512251853943,
          "351": -1.742919683456421,
          "352": 2.318943977355957,
          "353": 0.6018298864364624,
          "354": 0.2826676666736603,
          "355": 1.493326187133789,
          "356": 0.7132713794708252,
          "357": -2.232609748840332,
          "358": -1.5515202283859253,
          "359": 0.819576621055603,
          "360": 0.46855589747428894,
          "361": -0.527182936668396,
          "362": -0.3987880051136017,
          "363": 0.5496914982795715,
          "364": -0.6919592022895813,
          "365": -1.2159414291381836,
          "366": 0.10153539478778839,
          "367": -0.398183673620224,
          "368": 0.357283353805542,
          "369": -0.3304445147514343,
          "370": 1.417934775352478,
          "371": -1.6288665533065796,
          "372": -0.38506394624710083,
          "373": 1.4134063720703125,
          "374": -0.5065021514892578,
          "375": 1.406313419342041,
          "376": -2.016321897506714,
          "377": -0.631392240524292,
          "378": 1.2183610200881958,
          "379": 0.902461051940918,
          "380": -0.4301374554634094,
          "381": -1.4456522464752197,
          "382": 0.8257887363433838,
          "383": 0.28830188512802124,
          "384": 1.0553685426712036,
          "385": -0.47601860761642456,
          "386": -2.14058780670166,
          "387": -2.3807644844055176,
          "388": 1.3725135326385498,
          "389": 0.47589045763015747,
          "390": 0.7038471102714539,
          "391": -0.46539306640625,
          "392": 0.3408881425857544,
          "393": 2.615835428237915,
          "394": -0.2430049031972885,
          "395": 1.7118961811065674,
          "396": 1.0173242092132568,
          "397": -1.173403263092041,
          "398": 1.511911153793335,
          "399": -1.9104905128479004,
          "400": 1.3591976165771484,
          "401": -1.4096111059188843,
          "402": -0.15942108631134033,
          "403": 0.9952865242958069,
          "404": 1.3402185440063477,
          "405": 0.5108376741409302,
          "406": 2.635643720626831,
          "407": -0.024089578539133072,
          "408": -2.3263657093048096,
          "409": 0.6782499551773071,
          "410": 0.9964364767074585,
          "411": -0.019874906167387962,
          "412": -0.5891157388687134,
          "413": 0.7679731845855713,
          "414": -2.541445732116699,
          "415": -0.38746094703674316,
          "416": -1.7601147890090942,
          "417": 0.20454569160938263,
          "418": 0.875525951385498,
          "419": -1.294028878211975,
          "420": -0.04932085797190666,
          "421": 0.28177210688591003,
          "422": 1.5977647304534912,
          "423": 1.3470488786697388,
          "424": -1.2709041833877563,
          "425": 0.4537557363510132,
          "426": 2.9879770278930664,
          "427": 2.3292627334594727,
          "428": -1.6732925176620483,
          "429": 0.16392329335212708,
          "430": 0.8484267592430115,
          "431": 1.0815250873565674,
          "432": 0.799694299697876,
          "433": 1.9836349487304688,
          "434": 1.7557542324066162,
          "435": 2.4689841270446777,
          "436": 1.0931440591812134,
          "437": -0.870604395866394,
          "438": -0.357885479927063,
          "439": -1.397754192352295,
          "440": 0.3088020384311676,
          "441": 1.7808223962783813,
          "442": -1.0922532081604004,
          "443": -0.8820213675498962,
          "444": 0.47398725152015686,
          "445": -1.998184084892273,
          "446": -0.22436875104904175,
          "447": -0.7781674861907959,
          "448": -1.4061212539672852,
          "449": -2.795840263366699,
          "450": -0.5433831810951233,
          "451": -0.3885423541069031,
          "452": -1.8664755821228027,
          "453": 0.544154942035675,
          "454": -1.3116438388824463,
          "455": 1.8398985862731934,
          "456": -0.28930971026420593,
          "457": 1.5762379169464111,
          "458": 1.5726990699768066,
          "459": -1.007703185081482,
          "460": 1.0560095310211182,
          "461": -1.7662543058395386,
          "462": 0.4126301109790802,
          "463": -1.521816611289978,
          "464": 0.9787822961807251,
          "465": 1.1525084972381592,
          "466": 0.3426215350627899,
          "467": 0.9680701494216919,
          "468": -0.7882093191146851,
          "469": 0.15637114644050598,
          "470": -0.07871752977371216,
          "471": 0.19024617969989777,
          "472": 0.9296041131019592,
          "473": -0.7147509455680847,
          "474": -1.1237586736679077,
          "475": 0.8084035515785217,
          "476": -0.16878826916217804,
          "477": -2.263970375061035,
          "478": -0.8123443126678467,
          "479": -0.9358053803443909,
          "480": -1.2243642807006836,
          "481": -0.9902269244194031,
          "482": -0.9110422730445862,
          "483": 0.23581483960151672,
          "484": 0.04231582209467888,
          "485": -1.022141456604004,
          "486": 1.900048017501831,
          "487": -1.0642125606536865,
          "488": 1.2339147329330444,
          "489": 0.9336732625961304,
          "490": -1.9097641706466675,
          "491": 1.0306951999664307,
          "492": -1.1261861324310303,
          "493": 0.09132138639688492,
          "494": -0.32637450098991394,
          "495": 1.194412350654602,
          "496": -1.1788209676742554,
          "497": -0.2110268622636795,
          "498": 3.9653327465057373,
          "499": -1.0963795185089111,
          "500": -0.8040626645088196,
          "501": 0.018710188567638397,
          "502": 0.5807014107704163,
          "503": 2.1116507053375244,
          "504": 0.7998829483985901,
          "505": -0.2199236899614334,
          "506": 0.3069380819797516,
          "507": 0.22325670719146729,
          "508": 0.4160960912704468,
          "509": -1.6846121549606323,
          "510": 1.0380260944366455,
          "511": 0.07366373389959335,
          "512": -1.5436204671859741,
          "513": -0.5175202488899231,
          "514": -2.8381855487823486,
          "515": -0.5388211607933044,
          "516": -0.33577027916908264,
          "517": -0.36138078570365906,
          "518": 0.0013112036976963282,
          "519": 1.3344786167144775,
          "520": 1.3199031352996826,
          "521": -1.170708179473877,
          "522": 0.19389434158802032,
          "523": -1.5924816131591797,
          "524": -1.6846870183944702,
          "525": -0.2281254529953003,
          "526": 1.1156868934631348,
          "527": 0.48847371339797974,
          "528": -1.546934723854065,
          "529": -0.5392930507659912,
          "530": -1.4267693758010864,
          "531": 0.826930046081543,
          "532": 1.3792170286178589,
          "533": -0.8852524161338806,
          "534": -0.6862778663635254,
          "535": 2.83158540725708,
          "536": 0.25977179408073425,
          "537": -1.3763290643692017,
          "538": 1.4238752126693726,
          "539": 0.9307048916816711,
          "540": 1.3262776136398315,
          "541": 1.381905436515808,
          "542": -0.3351745307445526,
          "543": -0.3948456048965454,
          "544": -2.2998127937316895,
          "545": -0.14075899124145508,
          "546": 1.8030270338058472,
          "547": -0.8078790307044983,
          "548": -2.9550487995147705,
          "549": 2.873086929321289,
          "550": -0.7125141024589539,
          "551": -0.00029674675897695124,
          "552": -0.45439794659614563,
          "553": 0.03557226061820984,
          "554": 1.4217052459716797,
          "555": -1.9320859909057617,
          "556": 0.5061061978340149,
          "557": -1.6493992805480957,
          "558": 1.1318937540054321,
          "559": -0.6227301359176636,
          "560": 0.9480921626091003,
          "561": -0.2580808401107788,
          "562": 1.112541913986206,
          "563": -0.9049394726753235,
          "564": -0.09917806833982468,
          "565": 0.7243093848228455,
          "566": 1.561170220375061,
          "567": -1.0273182392120361,
          "568": -0.5812557339668274,
          "569": -0.7803826928138733,
          "570": 0.7605013251304626,
          "571": -0.5128865838050842,
          "572": -1.9959964752197266,
          "573": -1.1609259843826294,
          "574": -2.7929389476776123,
          "575": -2.150064706802368,
          "576": -1.1509945392608643,
          "577": 1.8582030534744263,
          "578": -3.688598155975342,
          "579": 0.3896685242652893,
          "580": 2.2037343978881836,
          "581": 1.3884996175765991,
          "582": 1.9393564462661743,
          "583": -2.3732664585113525,
          "584": 1.6155381202697754,
          "585": 0.0887775793671608,
          "586": -1.0364336967468262,
          "587": -0.9543800354003906,
          "588": 1.1187292337417603,
          "589": 1.247277855873108,
          "590": 0.7870495319366455,
          "591": 0.5243810415267944,
          "592": -0.35080862045288086,
          "593": 0.551307737827301,
          "594": -0.659125030040741,
          "595": 1.4514919519424438,
          "596": -0.5290272235870361,
          "597": -0.8977853655815125,
          "598": -0.3535938560962677,
          "599": 1.799036979675293,
          "600": -1.0710639953613281,
          "601": -1.2551352977752686,
          "602": -0.6819761395454407,
          "603": -2.346571922302246,
          "604": 0.11882998049259186,
          "605": -0.2682453989982605,
          "606": 0.08877764642238617,
          "607": 0.1846742033958435,
          "608": 1.9295371770858765,
          "609": 2.3174185752868652,
          "610": 2.2589967250823975,
          "611": -0.5870603919029236,
          "612": -0.8187819123268127,
          "613": 2.3790783882141113,
          "614": -0.218327596783638,
          "615": -0.8520506620407104,
          "616": 1.2820510864257812,
          "617": -0.12447740882635117,
          "618": -2.542971611022949,
          "619": 1.22032630443573
        }
      },
      "forgetHidden": {
        "rows": 20,
        "columns": 20,
        "weights": {
          "0": 0.6406021118164062,
          "1": -0.26627546548843384,
          "2": 0.44348108768463135,
          "3": -1.0101847648620605,
          "4": 2.092860460281372,
          "5": -1.5208673477172852,
          "6": -3.6963658332824707,
          "7": -0.11106443405151367,
          "8": 4.065247058868408,
          "9": 0.8828652501106262,
          "10": 1.856642246246338,
          "11": -0.884039044380188,
          "12": -0.4109334349632263,
          "13": 3.84346866607666,
          "14": -2.5560152530670166,
          "15": 2.1742610931396484,
          "16": 0.47194406390190125,
          "17": -1.829492449760437,
          "18": 1.2928179502487183,
          "19": 3.5026469230651855,
          "20": -1.5847208499908447,
          "21": -1.9069856405258179,
          "22": -1.649175763130188,
          "23": 0.6141640543937683,
          "24": -1.8369531631469727,
          "25": -0.22827982902526855,
          "26": 1.6992906332015991,
          "27": -2.1493313312530518,
          "28": -3.0738637447357178,
          "29": 2.370997190475464,
          "30": -6.062525749206543,
          "31": -0.44042107462882996,
          "32": -0.916068434715271,
          "33": 0.6701620221138,
          "34": -1.0305149555206299,
          "35": -0.7896791100502014,
          "36": -1.5048469305038452,
          "37": 0.04815074801445007,
          "38": -3.8753881454467773,
          "39": -3.46042537689209,
          "40": -0.1904924064874649,
          "41": -2.1969668865203857,
          "42": -2.458218574523926,
          "43": -0.8901565670967102,
          "44": -2.688814401626587,
          "45": 1.5215882062911987,
          "46": 3.079354763031006,
          "47": -0.9797231554985046,
          "48": 0.3179400563240051,
          "49": 0.8228368163108826,
          "50": -1.7250992059707642,
          "51": 1.7908742427825928,
          "52": -0.9360161423683167,
          "53": -1.3116512298583984,
